<?xml version="1.0"?>
<opencv_storage>
<cascade>
  <stageType>BOOST</stageType>
  <featureType>HAAR</featureType>
  <height>24</height>
  <width>24</width>
  <stageParams>
    <boostType>GAB</boostType>
    <minHitRate>9.9500000476837158e-01</minHitRate>
    <maxFalseAlarm>5.0000000000000000e-01</maxFalseAlarm>
    <weightTrimRate>9.4999998807907104e-01</weightTrimRate>
    <maxDepth>1</maxDepth>
    <maxWeakCount>100</maxWeakCount></stageParams>
  <featureParams>
    <maxCatCount>0</maxCatCount>
    <featSize>1</featSize>
    <mode>BASIC</mode></featureParams>
  <stageNum>20</stageNum>
  <stages>
    <!-- stage 0 -->
    <_>
      <maxWeakCount>2</maxWeakCount>
      <stageThreshold>-1.1989539489150047e-02</stageThreshold>
      <weakClassifiers>
        <_>
          <internalNodes>
            0 -1 27 -8.3012133836746216e-02</internalNodes>
          <leafValues>
            -8.5915493965148926e-01 7.7215188741683960e-01</leafValues></_>
        <_>
          <internalNodes>
            0 -1 80 1.0329101234674454e-02</internalNodes>
          <leafValues>
            -6.8489098548889160e-01 8.4716540575027466e-01</leafValues></_></weakClassifiers></_>
    <!-- stage 1 -->
    <_>
      <maxWeakCount>3</maxWeakCount>
      <stageThreshold>-3.5929208993911743e-01</stageThreshold>
      <weakClassifiers>
        <_>
          <internalNodes>
            0 -1 23 1.2660860083997250e-02</internalNodes>
          <leafValues>
            -6.5853661298751831e-01 7.9411762952804565e-01</leafValues></_>
        <_>
          <internalNodes>
            0 -1 49 1.0566576384007931e-02</internalNodes>
          <leafValues>
            -4.2668947577476501e-01 7.7153819799423218e-01</leafValues></_>
        <_>
          <internalNodes>
            0 -1 39 -7.9120462760329247e-04</internalNodes>
          <leafValues>
            8.4255397319793701e-01 -4.7229370474815369e-01</leafValues></_></weakClassifiers></_>
    <!-- stage 2 -->
    <_>
      <maxWeakCount>5</maxWeakCount>
      <stageThreshold>-5.2798366546630859e-01</stageThreshold>
      <weakClassifiers>
        <_>
          <internalNodes>
            0 -1 51 -5.2061408758163452e-02</internalNodes>
          <leafValues>
            1. -4.8514851927757263e-01</leafValues></_>
        <_>
          <internalNodes>
            0 -1 32 5.6355413107667118e-05</internalNodes>
          <leafValues>
            -3.6788061261177063e-01 5.9798187017440796e-01</leafValues></_>
        <_>
          <internalNodes>
            0 -1 24 3.7308977916836739e-03</internalNodes>
          <leafValues>
            -4.8153540492057800e-01 5.4784387350082397e-01</leafValues></_>
        <_>
          <internalNodes>
            0 -1 28 -3.6494845990091562e-03</internalNodes>
          <leafValues>
            6.3204723596572876e-01 -5.2570307254791260e-01</leafValues></_>
        <_>
          <internalNodes>
            0 -1 7 8.6485245265066624e-04</internalNodes>
          <leafValues>
            3.6642143130302429e-01 -7.6077276468276978e-01</leafValues></_></weakClassifiers></_>
    <!-- stage 3 -->
    <_>
      <maxWeakCount>4</maxWeakCount>
      <stageThreshold>-5.5915671586990356e-01</stageThreshold>
      <weakClassifiers>
        <_>
          <internalNodes>
            0 -1 38 -4.5588564127683640e-02</internalNodes>
          <leafValues>
            6.9696968793869019e-01 -5.4761904478073120e-01</leafValues></_>
        <_>
          <internalNodes>
            0 -1 59 2.0974585786461830e-03</internalNodes>
          <leafValues>
            -3.3928206562995911e-01 6.7464607954025269e-01</leafValues></_>
        <_>
          <internalNodes>
            0 -1 44 -1.0706815868616104e-02</internalNodes>
          <leafValues>
            7.0714956521987915e-01 -3.5823997855186462e-01</leafValues></_>
        <_>
          <internalNodes>
            0 -1 69 3.7862688302993774e-02</internalNodes>
          <leafValues>
            -3.2794380187988281e-01 8.7158346176147461e-01</leafValues></_></weakClassifiers></_>
    <!-- stage 4 -->
    <_>
      <maxWeakCount>5</maxWeakCount>
      <stageThreshold>-2.7445369958877563e-01</stageThreshold>
      <weakClassifiers>
        <_>
          <internalNodes>
            0 -1 12 -3.3892102539539337e-02</internalNodes>
          <leafValues>
            9.2000001668930054e-01 -4.6000000834465027e-01</leafValues></_>
        <_>
          <internalNodes>
            0 -1 60 -2.2623685654252768e-03</internalNodes>
          <leafValues>
            8.1905376911163330e-01 -2.2759824991226196e-01</leafValues></_>
        <_>
          <internalNodes>
            0 -1 86 -5.8012316003441811e-04</internalNodes>
          <leafValues>
            -7.7941918373107910e-01 3.4831851720809937e-01</leafValues></_>
        <_>
          <internalNodes>
            0 -1 33 -1.3634782590088435e-05</internalNodes>
          <leafValues>
            4.7939962148666382e-01 -5.4280519485473633e-01</leafValues></_>
        <_>
          <internalNodes>
            0 -1 48 -8.9266046416014433e-05</internalNodes>
          <leafValues>
            6.3422828912734985e-01 -4.1457358002662659e-01</leafValues></_></weakClassifiers></_>
    <!-- stage 5 -->
    <_>
      <maxWeakCount>6</maxWeakCount>
      <stageThreshold>-3.8134437799453735e-01</stageThreshold>
      <weakClassifiers>
        <_>
          <internalNodes>
            0 -1 83 -3.1260866671800613e-03</internalNodes>
          <leafValues>
            8.2608693838119507e-01 -3.6538460850715637e-01</leafValues></_>
        <_>
          <internalNodes>
            0 -1 43 -1.7091237241402268e-03</internalNodes>
          <leafValues>
            8.1480741500854492e-01 -2.6470509171485901e-01</leafValues></_>
        <_>
          <internalNodes>
            0 -1 63 1.3050865381956100e-03</internalNodes>
          <leafValues>
            -4.8940271139144897e-01 5.2173489332199097e-01</leafValues></_>
        <_>
          <internalNodes>
            0 -1 65 5.0725163891911507e-03</internalNodes>
          <leafValues>
            -4.1375094652175903e-01 6.6818201541900635e-01</leafValues></_>
        <_>
          <internalNodes>
            0 -1 21 4.8815389163792133e-03</internalNodes>
          <leafValues>
            -3.4350037574768066e-01 9.1648340225219727e-01</leafValues></_>
        <_>
          <internalNodes>
            0 -1 72 7.8503275290131569e-03</internalNodes>
          <leafValues>
            -5.9525078535079956e-01 5.1486110687255859e-01</leafValues></_></weakClassifiers></_>
    <!-- stage 6 -->
    <_>
      <maxWeakCount>5</maxWeakCount>
      <stageThreshold>-4.1191509366035461e-01</stageThreshold>
      <weakClassifiers>
        <_>
          <internalNodes>
            0 -1 55 -4.6525215730071068e-03</internalNodes>
          <leafValues>
            9.4736844301223755e-01 -3.2142856717109680e-01</leafValues></_>
        <_>
          <internalNodes>
            0 -1 47 -2.2166714072227478e-02</internalNodes>
          <leafValues>
            -9.6767985820770264e-01 3.4077417850494385e-01</leafValues></_>
        <_>
          <internalNodes>
            0 -1 34 -1.9838165026158094e-03</internalNodes>
          <leafValues>
            8.4205162525177002e-01 -3.8382667303085327e-01</leafValues></_>
        <_>
          <internalNodes>
            0 -1 62 2.4025340098887682e-03</internalNodes>
          <leafValues>
            -4.4059336185455322e-01 7.4966126680374146e-01</leafValues></_>
        <_>
          <internalNodes>
            0 -1 15 -2.9622606933116913e-02</internalNodes>
          <leafValues>
            -7.9709529876708984e-01 4.6816870570182800e-01</leafValues></_></weakClassifiers></_>
    <!-- stage 7 -->
    <_>
      <maxWeakCount>5</maxWeakCount>
      <stageThreshold>-1.9598251581192017e-01</stageThreshold>
      <weakClassifiers>
        <_>
          <internalNodes>
            0 -1 18 2.9643736779689789e-02</internalNodes>
          <leafValues>
            -5.0561797618865967e-01 7.3770493268966675e-01</leafValues></_>
        <_>
          <internalNodes>
            0 -1 40 -2.3546766024082899e-03</internalNodes>
          <leafValues>
            -5.9944003820419312e-01 4.2875814437866211e-01</leafValues></_>
        <_>
          <internalNodes>
            0 -1 25 -1.5017751138657331e-03</internalNodes>
          <leafValues>
            7.9684710502624512e-01 -4.4212320446968079e-01</leafValues></_>
        <_>
          <internalNodes>
            0 -1 30 5.9682140999939293e-05</internalNodes>
          <leafValues>
            -4.1917404532432556e-01 7.2412091493606567e-01</leafValues></_>
        <_>
          <internalNodes>
            0 -1 45 1.3715455679630395e-05</internalNodes>
          <leafValues>
            -3.3923068642616272e-01 7.4217450618743896e-01</leafValues></_></weakClassifiers></_>
    <!-- stage 8 -->
    <_>
      <maxWeakCount>6</maxWeakCount>
      <stageThreshold>-3.3633518218994141e-01</stageThreshold>
      <weakClassifiers>
        <_>
          <internalNodes>
            0 -1 64 -5.3947236388921738e-02</internalNodes>
          <leafValues>
            6.1904764175415039e-01 -4.4827586412429810e-01</leafValues></_>
        <_>
          <internalNodes>
            0 -1 57 -1.7376218238496222e-05</internalNodes>
          <leafValues>
            7.1610808372497559e-01 -3.5988265275955200e-01</leafValues></_>
        <_>
          <internalNodes>
            0 -1 4 -1.9911620765924454e-02</internalNodes>
          <leafValues>
            8.8323783874511719e-01 -2.8649184107780457e-01</leafValues></_>
        <_>
          <internalNodes>
            0 -1 66 1.1256576981395483e-03</internalNodes>
          <leafValues>
            -4.3948769569396973e-01 6.8206793069839478e-01</leafValues></_>
        <_>
          <internalNodes>
            0 -1 78 5.0794088747352362e-04</internalNodes>
          <leafValues>
            -4.0268492698669434e-01 7.2503101825714111e-01</leafValues></_>
        <_>
          <internalNodes>
            0 -1 8 -1.7475299537181854e-03</internalNodes>
          <leafValues>
            -5.2885502576828003e-01 5.3316432237625122e-01</leafValues></_></weakClassifiers></_>
    <!-- stage 9 -->
    <_>
      <maxWeakCount>5</maxWeakCount>
      <stageThreshold>-1.3432995975017548e-01</stageThreshold>
      <weakClassifiers>
        <_>
          <internalNodes>
            0 -1 1 -3.6070317029953003e-02</internalNodes>
          <leafValues>
            8.1395345926284790e-01 -3.2710281014442444e-01</leafValues></_>
        <_>
          <internalNodes>
            0 -1 87 -2.9333494603633881e-03</internalNodes>
          <leafValues>
            -6.0169267654418945e-01 4.1783598065376282e-01</leafValues></_>
        <_>
          <internalNodes>
            0 -1 71 1.2666026123042684e-05</internalNodes>
          <leafValues>
            -4.8586466908454895e-01 5.4198801517486572e-01</leafValues></_>
        <_>
          <internalNodes>
            0 -1 22 -5.9064282104372978e-03</internalNodes>
          <leafValues>
            6.7890304327011108e-01 -4.4499447941780090e-01</leafValues></_>
        <_>
          <internalNodes>
            0 -1 36 3.4175220207544044e-05</internalNodes>
          <leafValues>
            -3.2205671072006226e-01 7.4908065795898438e-01</leafValues></_></weakClassifiers></_>
    <!-- stage 10 -->
    <_>
      <maxWeakCount>4</maxWeakCount>
      <stageThreshold>-3.0550426244735718e-01</stageThreshold>
      <weakClassifiers>
        <_>
          <internalNodes>
            0 -1 2 3.9902087301015854e-03</internalNodes>
          <leafValues>
            2.6495727896690369e-01 -9.3939393758773804e-01</leafValues></_>
        <_>
          <internalNodes>
            0 -1 46 2.3706898093223572e-02</internalNodes>
          <leafValues>
            -4.2547202110290527e-01 7.1150547266006470e-01</leafValues></_>
        <_>
          <internalNodes>
            0 -1 79 -6.1756907962262630e-04</internalNodes>
          <leafValues>
            -6.7414420843124390e-01 3.7374618649482727e-01</leafValues></_>
        <_>
          <internalNodes>
            0 -1 70 1.5092974535946269e-05</internalNodes>
          <leafValues>
            -4.5682775974273682e-01 5.9652835130691528e-01</leafValues></_></weakClassifiers></_>
    <!-- stage 11 -->
    <_>
      <maxWeakCount>4</maxWeakCount>
      <stageThreshold>-3.6888787150382996e-01</stageThreshold>
      <weakClassifiers>
        <_>
          <internalNodes>
            0 -1 14 1.0907957330346107e-02</internalNodes>
          <leafValues>
            -3.7254902720451355e-01 7.9166668653488159e-01</leafValues></_>
        <_>
          <internalNodes>
            0 -1 54 -7.2844605892896652e-03</internalNodes>
          <leafValues>
            -9.2719101905822754e-01 2.9655423760414124e-01</leafValues></_>
        <_>
          <internalNodes>
            0 -1 88 -4.2795587796717882e-04</internalNodes>
          <leafValues>
            -8.8107633590698242e-01 2.5158640742301941e-01</leafValues></_>
        <_>
          <internalNodes>
            0 -1 73 -5.7652930263429880e-04</internalNodes>
          <leafValues>
            5.8818322420120239e-01 -4.8270559310913086e-01</leafValues></_></weakClassifiers></_>
    <!-- stage 12 -->
    <_>
      <maxWeakCount>5</maxWeakCount>
      <stageThreshold>-1.0656152963638306e+00</stageThreshold>
      <weakClassifiers>
        <_>
          <internalNodes>
            0 -1 81 6.5408786758780479e-03</internalNodes>
          <leafValues>
            -3.0357143282890320e-01 8.9473682641983032e-01</leafValues></_>
        <_>
          <internalNodes>
            0 -1 11 -8.5644207894802094e-02</internalNodes>
          <leafValues>
            -8.0880618095397949e-01 3.5831686854362488e-01</leafValues></_>
        <_>
          <internalNodes>
            0 -1 52 5.0956371705979109e-04</internalNodes>
          <leafValues>
            -5.1100069284439087e-01 5.6254023313522339e-01</leafValues></_>
        <_>
          <internalNodes>
            0 -1 37 -6.7133049014955759e-04</internalNodes>
          <leafValues>
            7.1908408403396606e-01 -4.1395086050033569e-01</leafValues></_>
        <_>
          <internalNodes>
            0 -1 50 -1.0451322421431541e-02</internalNodes>
          <leafValues>
            9.2006713151931763e-01 -2.2659444808959961e-01</leafValues></_></weakClassifiers></_>
    <!-- stage 13 -->
    <_>
      <maxWeakCount>6</maxWeakCount>
      <stageThreshold>-4.4804051518440247e-01</stageThreshold>
      <weakClassifiers>
        <_>
          <internalNodes>
            0 -1 19 -7.2103552520275116e-03</internalNodes>
          <leafValues>
            6.6666668653488159e-01 -3.7500000000000000e-01</leafValues></_>
        <_>
          <internalNodes>
            0 -1 84 1.4356826795847155e-05</internalNodes>
          <leafValues>
            -3.1211835145950317e-01 7.9416573047637939e-01</leafValues></_>
        <_>
          <internalNodes>
            0 -1 58 -1.2801865523215383e-05</internalNodes>
          <leafValues>
            6.4300417900085449e-01 -4.4718232750892639e-01</leafValues></_>
        <_>
          <internalNodes>
            0 -1 56 5.4463860578835011e-05</internalNodes>
          <leafValues>
            -5.3663760423660278e-01 5.4899084568023682e-01</leafValues></_>
        <_>
          <internalNodes>
            0 -1 67 -1.4290014514699578e-03</internalNodes>
          <leafValues>
            6.2970477342605591e-01 -4.6647644042968750e-01</leafValues></_>
        <_>
          <internalNodes>
            0 -1 61 -1.7202438320964575e-03</internalNodes>
          <leafValues>
            7.3523330688476563e-01 -4.3792089819908142e-01</leafValues></_></weakClassifiers></_>
    <!-- stage 14 -->
    <_>
      <maxWeakCount>3</maxWeakCount>
      <stageThreshold>-2.6048740744590759e-01</stageThreshold>
      <weakClassifiers>
        <_>
          <internalNodes>
            0 -1 68 1.3597121323982719e-05</internalNodes>
          <leafValues>
            -3.9130434393882751e-01 6.2068963050842285e-01</leafValues></_>
        <_>
          <internalNodes>
            0 -1 10 -1.9510074707795866e-05</internalNodes>
          <leafValues>
            6.2490564584732056e-01 -4.9704009294509888e-01</leafValues></_>
        <_>
          <internalNodes>
            0 -1 29 2.8900614008307457e-02</internalNodes>
          <leafValues>
            -3.8413694500923157e-01 7.4952214956283569e-01</leafValues></_></weakClassifiers></_>
    <!-- stage 15 -->
    <_>
      <maxWeakCount>6</maxWeakCount>
      <stageThreshold>-7.1104145050048828e-01</stageThreshold>
      <weakClassifiers>
        <_>
          <internalNodes>
            0 -1 3 -2.7032461017370224e-02</internalNodes>
          <leafValues>
            7.3076921701431274e-01 -3.8775509595870972e-01</leafValues></_>
        <_>
          <internalNodes>
            0 -1 5 5.1862090826034546e-02</internalNodes>
          <leafValues>
            3.6206594109535217e-01 -8.8040065765380859e-01</leafValues></_>
        <_>
          <internalNodes>
            0 -1 75 -4.7716135159134865e-03</internalNodes>
          <leafValues>
            7.6166409254074097e-01 -4.0216255187988281e-01</leafValues></_>
        <_>
          <internalNodes>
            0 -1 85 -1.1892361362697557e-04</internalNodes>
          <leafValues>
            6.2173485755920410e-01 -4.6791821718215942e-01</leafValues></_>
        <_>
          <internalNodes>
            0 -1 77 -1.5071971574798226e-05</internalNodes>
          <leafValues>
            6.0672128200531006e-01 -4.9757915735244751e-01</leafValues></_>
        <_>
          <internalNodes>
            0 -1 53 -1.6718140104785562e-03</internalNodes>
          <leafValues>
            8.1929111480712891e-01 -4.2199277877807617e-01</leafValues></_></weakClassifiers></_>
    <!-- stage 16 -->
    <_>
      <maxWeakCount>4</maxWeakCount>
      <stageThreshold>-1.6190223395824432e-01</stageThreshold>
      <weakClassifiers>
        <_>
          <internalNodes>
            0 -1 26 -7.9476898536086082e-03</internalNodes>
          <leafValues>
            8.4615385532379150e-01 -4.4897958636283875e-01</leafValues></_>
        <_>
          <internalNodes>
            0 -1 9 -2.0491521805524826e-02</internalNodes>
          <leafValues>
            -7.3591631650924683e-01 4.2253330349922180e-01</leafValues></_>
        <_>
          <internalNodes>
            0 -1 6 1.0502170771360397e-03</internalNodes>
          <leafValues>
            3.5571315884590149e-01 -7.7001172304153442e-01</leafValues></_>
        <_>
          <internalNodes>
            0 -1 20 2.4894108064472675e-03</internalNodes>
          <leafValues>
            -4.9116909503936768e-01 7.2766196727752686e-01</leafValues></_></weakClassifiers></_>
    <!-- stage 17 -->
    <_>
      <maxWeakCount>5</maxWeakCount>
      <stageThreshold>-8.5975807905197144e-01</stageThreshold>
      <weakClassifiers>
        <_>
          <internalNodes>
            0 -1 82 -2.7200235053896904e-02</internalNodes>
          <leafValues>
            1. -3.2743361592292786e-01</leafValues></_>
        <_>
          <internalNodes>
            0 -1 74 3.8784324715379626e-05</internalNodes>
          <leafValues>
            -4.0148207545280457e-01 6.8881916999816895e-01</leafValues></_>
        <_>
          <internalNodes>
            0 -1 76 1.2666026123042684e-05</internalNodes>
          <leafValues>
            -4.8088711500167847e-01 6.5177440643310547e-01</leafValues></_>
        <_>
          <internalNodes>
            0 -1 13 -3.5939310328103602e-04</internalNodes>
          <leafValues>
            -5.5703425407409668e-01 6.4600491523742676e-01</leafValues></_>
        <_>
          <internalNodes>
            0 -1 89 2.4392509367316961e-03</internalNodes>
          <leafValues>
            -4.1190743446350098e-01 9.0707898139953613e-01</leafValues></_></weakClassifiers></_>
    <!-- stage 18 -->
    <_>
      <maxWeakCount>4</maxWeakCount>
      <stageThreshold>-2.0466023683547974e-01</stageThreshold>
      <weakClassifiers>
        <_>
          <internalNodes>
            0 -1 31 6.0327522456645966e-02</internalNodes>
          <leafValues>
            -5.3488373756408691e-01 7.1875000000000000e-01</leafValues></_>
        <_>
          <internalNodes>
            0 -1 17 3.2888685818761587e-03</internalNodes>
          <leafValues>
            4.7475048899650574e-01 -7.3006093502044678e-01</leafValues></_>
        <_>
          <internalNodes>
            0 -1 0 -5.8719883672893047e-03</internalNodes>
          <leafValues>
            -6.7492985725402832e-01 5.0573045015335083e-01</leafValues></_>
        <_>
          <internalNodes>
            0 -1 91 1.0965645778924227e-03</internalNodes>
          <leafValues>
            6.0916936397552490e-01 -6.5025746822357178e-01</leafValues></_></weakClassifiers></_>
    <!-- stage 19 -->
    <_>
      <maxWeakCount>5</maxWeakCount>
      <stageThreshold>-5.0707373768091202e-02</stageThreshold>
      <weakClassifiers>
        <_>
          <internalNodes>
            0 -1 41 4.6978527680039406e-03</internalNodes>
          <leafValues>
            -3.2727271318435669e-01 8.9999997615814209e-01</leafValues></_>
        <_>
          <internalNodes>
            0 -1 42 -1.7656503245234489e-02</internalNodes>
          <leafValues>
            -6.8525451421737671e-01 5.2107709646224976e-01</leafValues></_>
        <_>
          <internalNodes>
            0 -1 90 -2.9855687171220779e-03</internalNodes>
          <leafValues>
            -7.1094161272048950e-01 4.5935171842575073e-01</leafValues></_>
        <_>
          <internalNodes>
            0 -1 16 -1.4999832957983017e-02</internalNodes>
          <leafValues>
            9.6051162481307983e-01 -3.9415341615676880e-01</leafValues></_>
        <_>
          <internalNodes>
            0 -1 35 -9.9588581360876560e-04</internalNodes>
          <leafValues>
            8.9662152528762817e-01 -2.7770042419433594e-01</leafValues></_></weakClassifiers></_></stages>
  <features>
    <_>
      <rects>
        <_>
          0 0 1 14 -1.</_>
        <_>
          0 7 1 7 2.</_></rects>
      <tilted>0</tilted></_>
    <_>
      <rects>
        <_>
          0 0 4 21 -1.</_>
        <_>
          2 0 2 21 2.</_></rects>
      <tilted>0</tilted></_>
    <_>
      <rects>
        <_>
          0 0 8 1 -1.</_>
        <_>
          4 0 4 1 2.</_></rects>
      <tilted>0</tilted></_>
    <_>
      <rects>
        <_>
          0 2 18 3 -1.</_>
        <_>
          6 2 6 3 3.</_></rects>
      <tilted>0</tilted></_>
    <_>
      <rects>
        <_>
          0 2 16 1 -1.</_>
        <_>
          8 2 8 1 2.</_></rects>
      <tilted>0</tilted></_>
    <_>
      <rects>
        <_>
          0 2 24 8 -1.</_>
        <_>
          0 2 12 4 2.</_>
        <_>
          12 6 12 4 2.</_></rects>
      <tilted>0</tilted></_>
    <_>
      <rects>
        <_>
          0 3 3 4 -1.</_>
        <_>
          0 5 3 2 2.</_></rects>
      <tilted>0</tilted></_>
    <_>
      <rects>
        <_>
          0 5 2 4 -1.</_>
        <_>
          1 5 1 4 2.</_></rects>
      <tilted>0</tilted></_>
    <_>
      <rects>
        <_>
          0 7 1 16 -1.</_>
        <_>
          0 15 1 8 2.</_></rects>
      <tilted>0</tilted></_>
    <_>
      <rects>
        <_>
          0 16 14 4 -1.</_>
        <_>
          0 18 14 2 2.</_></rects>
      <tilted>0</tilted></_>
    <_>
      <rects>
        <_>
          0 23 2 1 -1.</_>
        <_>
          1 23 1 1 2.</_></rects>
      <tilted>0</tilted></_>
    <_>
      <rects>
        <_>
          1 0 22 18 -1.</_>
        <_>
          1 0 11 9 2.</_>
        <_>
          12 9 11 9 2.</_></rects>
      <tilted>0</tilted></_>
    <_>
      <rects>
        <_>
          1 0 20 4 -1.</_>
        <_>
          1 2 20 2 2.</_></rects>
      <tilted>0</tilted></_>
    <_>
      <rects>
        <_>
          1 3 1 9 -1.</_>
        <_>
          1 6 1 3 3.</_></rects>
      <tilted>0</tilted></_>
    <_>
      <rects>
        <_>
          2 4 8 4 -1.</_>
        <_>
          2 4 4 2 2.</_>
        <_>
          6 6 4 2 2.</_></rects>
      <tilted>0</tilted></_>
    <_>
      <rects>
        <_>
          2 9 20 8 -1.</_>
        <_>
          2 9 10 4 2.</_>
        <_>
          12 13 10 4 2.</_></rects>
      <tilted>0</tilted></_>
    <_>
      <rects>
        <_>
          2 17 6 7 -1.</_>
        <_>
          4 17 2 7 3.</_></rects>
      <tilted>0</tilted></_>
    <_>
      <rects>
        <_>
          3 0 14 1 -1.</_>
        <_>
          10 0 7 1 2.</_></rects>
      <tilted>0</tilted></_>
    <_>
      <rects>
        <_>
          3 1 10 8 -1.</_>
        <_>
          3 1 5 4 2.</_>
        <_>
          8 5 5 4 2.</_></rects>
      <tilted>0</tilted></_>
    <_>
      <rects>
        <_>
          3 4 6 4 -1.</_>
        <_>
          5 4 2 4 3.</_></rects>
      <tilted>0</tilted></_>
    <_>
      <rects>
        <_>
          3 5 4 12 -1.</_>
        <_>
          3 5 2 6 2.</_>
        <_>
          5 11 2 6 2.</_></rects>
      <tilted>0</tilted></_>
    <_>
      <rects>
        <_>
          3 6 8 4 -1.</_>
        <_>
          3 6 4 2 2.</_>
        <_>
          7 8 4 2 2.</_></rects>
      <tilted>0</tilted></_>
    <_>
      <rects>
        <_>
          4 0 13 3 -1.</_>
        <_>
          4 1 13 1 3.</_></rects>
      <tilted>0</tilted></_>
    <_>
      <rects>
        <_>
          4 1 8 8 -1.</_>
        <_>
          4 1 4 4 2.</_>
        <_>
          8 5 4 4 2.</_></rects>
      <tilted>0</tilted></_>
    <_>
      <rects>
        <_>
          4 6 8 2 -1.</_>
        <_>
          8 6 4 2 2.</_></rects>
      <tilted>0</tilted></_>
    <_>
      <rects>
        <_>
          4 12 2 6 -1.</_>
        <_>
          4 12 1 3 2.</_>
        <_>
          5 15 1 3 2.</_></rects>
      <tilted>0</tilted></_>
    <_>
      <rects>
        <_>
          5 0 2 6 -1.</_>
        <_>
          5 3 2 3 2.</_></rects>
      <tilted>0</tilted></_>
    <_>
      <rects>
        <_>
          5 0 10 22 -1.</_>
        <_>
          5 11 10 11 2.</_></rects>
      <tilted>0</tilted></_>
    <_>
      <rects>
        <_>
          5 0 11 3 -1.</_>
        <_>
          5 1 11 1 3.</_></rects>
      <tilted>0</tilted></_>
    <_>
      <rects>
        <_>
          5 2 3 21 -1.</_>
        <_>
          5 9 3 7 3.</_></rects>
      <tilted>0</tilted></_>
    <_>
      <rects>
        <_>
          5 16 2 2 -1.</_>
        <_>
          5 16 1 1 2.</_>
        <_>
          6 17 1 1 2.</_></rects>
      <tilted>0</tilted></_>
    <_>
      <rects>
        <_>
          6 2 8 18 -1.</_>
        <_>
          6 8 8 6 3.</_></rects>
      <tilted>0</tilted></_>
    <_>
      <rects>
        <_>
          6 21 4 2 -1.</_>
        <_>
          6 22 4 1 2.</_></rects>
      <tilted>0</tilted></_>
    <_>
      <rects>
        <_>
          7 4 1 3 -1.</_>
        <_>
          7 5 1 1 3.</_></rects>
      <tilted>0</tilted></_>
    <_>
      <rects>
        <_>
          7 4 2 8 -1.</_>
        <_>
          7 4 1 4 2.</_>
        <_>
          8 8 1 4 2.</_></rects>
      <tilted>0</tilted></_>
    <_>
      <rects>
        <_>
          7 4 6 2 -1.</_>
        <_>
          7 4 3 1 2.</_>
        <_>
          10 5 3 1 2.</_></rects>
      <tilted>0</tilted></_>
    <_>
      <rects>
        <_>
          7 10 2 2 -1.</_>
        <_>
          7 10 1 1 2.</_>
        <_>
          8 11 1 1 2.</_></rects>
      <tilted>0</tilted></_>
    <_>
      <rects>
        <_>
          7 10 4 2 -1.</_>
        <_>
          7 10 2 1 2.</_>
        <_>
          9 11 2 1 2.</_></rects>
      <tilted>0</tilted></_>
    <_>
      <rects>
        <_>
          8 0 14 10 -1.</_>
        <_>
          8 0 7 5 2.</_>
        <_>
          15 5 7 5 2.</_></rects>
      <tilted>0</tilted></_>
    <_>
      <rects>
        <_>
          8 1 2 2 -1.</_>
        <_>
          8 2 2 1 2.</_></rects>
      <tilted>0</tilted></_>
    <_>
      <rects>
        <_>
          8 1 4 10 -1.</_>
        <_>
          10 1 2 10 2.</_></rects>
      <tilted>0</tilted></_>
    <_>
      <rects>
        <_>
          8 7 8 3 -1.</_>
        <_>
          8 8 8 1 3.</_></rects>
      <tilted>0</tilted></_>
    <_>
      <rects>
        <_>
          8 8 8 12 -1.</_>
        <_>
          8 8 4 6 2.</_>
        <_>
          12 14 4 6 2.</_></rects>
      <tilted>0</tilted></_>
    <_>
      <rects>
        <_>
          8 9 2 3 -1.</_>
        <_>
          8 10 2 1 3.</_></rects>
      <tilted>0</tilted></_>
    <_>
      <rects>
        <_>
          8 11 9 6 -1.</_>
        <_>
          8 13 9 2 3.</_></rects>
      <tilted>0</tilted></_>
    <_>
      <rects>
        <_>
          8 19 1 2 -1.</_>
        <_>
          8 20 1 1 2.</_></rects>
      <tilted>0</tilted></_>
    <_>
      <rects>
        <_>
          9 3 4 6 -1.</_>
        <_>
          9 6 4 3 2.</_></rects>
      <tilted>0</tilted></_>
    <_>
      <rects>
        <_>
          9 5 3 18 -1.</_>
        <_>
          9 11 3 6 3.</_></rects>
      <tilted>0</tilted></_>
    <_>
      <rects>
        <_>
          9 10 2 2 -1.</_>
        <_>
          9 10 1 1 2.</_>
        <_>
          10 11 1 1 2.</_></rects>
      <tilted>0</tilted></_>
    <_>
      <rects>
        <_>
          10 0 4 10 -1.</_>
        <_>
          10 5 4 5 2.</_></rects>
      <tilted>0</tilted></_>
    <_>
      <rects>
        <_>
          10 1 2 6 -1.</_>
        <_>
          10 3 2 2 3.</_></rects>
      <tilted>0</tilted></_>
    <_>
      <rects>
        <_>
          10 1 14 8 -1.</_>
        <_>
          10 1 7 4 2.</_>
        <_>
          17 5 7 4 2.</_></rects>
      <tilted>0</tilted></_>
    <_>
      <rects>
        <_>
          10 5 2 6 -1.</_>
        <_>
          10 5 1 3 2.</_>
        <_>
          11 8 1 3 2.</_></rects>
      <tilted>0</tilted></_>
    <_>
      <rects>
        <_>
          10 6 4 4 -1.</_>
        <_>
          10 6 2 2 2.</_>
        <_>
          12 8 2 2 2.</_></rects>
      <tilted>0</tilted></_>
    <_>
      <rects>
        <_>
          10 9 1 10 -1.</_>
        <_>
          10 14 1 5 2.</_></rects>
      <tilted>0</tilted></_>
    <_>
      <rects>
        <_>
          10 9 6 3 -1.</_>
        <_>
          10 10 6 1 3.</_></rects>
      <tilted>0</tilted></_>
    <_>
      <rects>
        <_>
          10 10 4 2 -1.</_>
        <_>
          10 11 4 1 2.</_></rects>
      <tilted>0</tilted></_>
    <_>
      <rects>
        <_>
          10 22 2 1 -1.</_>
        <_>
          11 22 1 1 2.</_></rects>
      <tilted>0</tilted></_>
    <_>
      <rects>
        <_>
          11 1 2 2 -1.</_>
        <_>
          11 1 1 1 2.</_>
        <_>
          12 2 1 1 2.</_></rects>
      <tilted>0</tilted></_>
    <_>
      <rects>
        <_>
          11 7 3 7 -1.</_>
        <_>
          12 7 1 7 3.</_></rects>
      <tilted>0</tilted></_>
    <_>
      <rects>
        <_>
          11 13 2 3 -1.</_>
        <_>
          11 14 2 1 3.</_></rects>
      <tilted>0</tilted></_>
    <_>
      <rects>
        <_>
          11 13 3 3 -1.</_>
        <_>
          11 14 3 1 3.</_></rects>
      <tilted>0</tilted></_>
    <_>
      <rects>
        <_>
          11 14 10 3 -1.</_>
        <_>
          11 15 10 1 3.</_></rects>
      <tilted>0</tilted></_>
    <_>
      <rects>
        <_>
          11 14 11 3 -1.</_>
        <_>
          11 15 11 1 3.</_></rects>
      <tilted>0</tilted></_>
    <_>
      <rects>
        <_>
          12 2 12 10 -1.</_>
        <_>
          16 2 4 10 3.</_></rects>
      <tilted>0</tilted></_>
    <_>
      <rects>
        <_>
          12 4 3 6 -1.</_>
        <_>
          12 6 3 2 3.</_></rects>
      <tilted>0</tilted></_>
    <_>
      <rects>
        <_>
          12 10 4 3 -1.</_>
        <_>
          12 11 4 1 3.</_></rects>
      <tilted>0</tilted></_>
    <_>
      <rects>
        <_>
          12 18 7 4 -1.</_>
        <_>
          12 20 7 2 2.</_></rects>
      <tilted>0</tilted></_>
    <_>
      <rects>
        <_>
          12 22 2 2 -1.</_>
        <_>
          13 22 1 2 2.</_></rects>
      <tilted>0</tilted></_>
    <_>
      <rects>
        <_>
          13 0 10 5 -1.</_>
        <_>
          18 0 5 5 2.</_></rects>
      <tilted>0</tilted></_>
    <_>
      <rects>
        <_>
          13 4 2 2 -1.</_>
        <_>
          13 4 1 1 2.</_>
        <_>
          14 5 1 1 2.</_></rects>
      <tilted>0</tilted></_>
    <_>
      <rects>
        <_>
          13 21 1 2 -1.</_>
        <_>
          13 22 1 1 2.</_></rects>
      <tilted>0</tilted></_>
    <_>
      <rects>
        <_>
          14 1 5 21 -1.</_>
        <_>
          14 8 5 7 3.</_></rects>
      <tilted>0</tilted></_>
    <_>
      <rects>
        <_>
          14 9 3 2 -1.</_>
        <_>
          15 9 1 2 3.</_></rects>
      <tilted>0</tilted></_>
    <_>
      <rects>
        <_>
          14 14 2 3 -1.</_>
        <_>
          15 14 1 3 2.</_></rects>
      <tilted>0</tilted></_>
    <_>
      <rects>
        <_>
          15 13 5 4 -1.</_>
        <_>
          15 15 5 2 2.</_></rects>
      <tilted>0</tilted></_>
    <_>
      <rects>
        <_>
          15 20 1 2 -1.</_>
        <_>
          15 21 1 1 2.</_></rects>
      <tilted>0</tilted></_>
    <_>
      <rects>
        <_>
          16 6 2 1 -1.</_>
        <_>
          17 6 1 1 2.</_></rects>
      <tilted>0</tilted></_>
    <_>
      <rects>
        <_>
          16 9 4 2 -1.</_>
        <_>
          16 9 2 1 2.</_>
        <_>
          18 10 2 1 2.</_></rects>
      <tilted>0</tilted></_>
    <_>
      <rects>
        <_>
          17 0 6 1 -1.</_>
        <_>
          19 0 2 1 3.</_></rects>
      <tilted>0</tilted></_>
    <_>
      <rects>
        <_>
          17 2 2 21 -1.</_>
        <_>
          17 9 2 7 3.</_></rects>
      <tilted>0</tilted></_>
    <_>
      <rects>
        <_>
          17 4 6 1 -1.</_>
        <_>
          20 4 3 1 2.</_></rects>
      <tilted>0</tilted></_>
    <_>
      <rects>
        <_>
          17 6 6 7 -1.</_>
        <_>
          19 6 2 7 3.</_></rects>
      <tilted>0</tilted></_>
    <_>
      <rects>
        <_>
          17 8 6 1 -1.</_>
        <_>
          19 8 2 1 3.</_></rects>
      <tilted>0</tilted></_>
    <_>
      <rects>
        <_>
          19 13 2 2 -1.</_>
        <_>
          19 13 1 1 2.</_>
        <_>
          20 14 1 1 2.</_></rects>
      <tilted>0</tilted></_>
    <_>
      <rects>
        <_>
          19 22 4 2 -1.</_>
        <_>
          19 22 2 1 2.</_>
        <_>
          21 23 2 1 2.</_></rects>
      <tilted>0</tilted></_>
    <_>
      <rects>
        <_>
          20 0 4 4 -1.</_>
        <_>
          20 0 2 2 2.</_>
        <_>
          22 2 2 2 2.</_></rects>
      <tilted>0</tilted></_>
    <_>
      <rects>
        <_>
          20 2 4 10 -1.</_>
        <_>
          20 2 2 5 2.</_>
        <_>
          22 7 2 5 2.</_></rects>
      <tilted>0</tilted></_>
    <_>
      <rects>
        <_>
          21 0 2 1 -1.</_>
        <_>
          22 0 1 1 2.</_></rects>
      <tilted>0</tilted></_>
    <_>
      <rects>
        <_>
          21 9 3 10 -1.</_>
        <_>
          22 9 1 10 3.</_></rects>
      <tilted>0</tilted></_>
    <_>
      <rects>
        <_>
          22 1 2 22 -1.</_>
        <_>
          22 1 1 11 2.</_>
        <_>
          23 12 1 11 2.</_></rects>
      <tilted>0</tilted></_>
    <_>
      <rects>
        <_>
          22 5 2 5 -1.</_>
        <_>
          23 5 1 5 2.</_></rects>
      <tilted>0</tilted></_></features></cascade>
</opencv_storage>
